the -0.00017874241 7.881006e-05 0.0017011166 0.003003091 -0.0031009833 -0.0023722695 0.002152957 0.002990996 -0.0016718094 -0.0012544576 0.0024601682 -0.0005111575 -0.0015122048 0.0021846835 -0.0016200534 -0.0006053392 0.0009588599 0.00033062458 -0.0027617384 -0.0031496063 0.0024372553 0.0016900874 0.0022525645 0.00025428852 0.002116963 -0.001135122 -0.0003154675 0.0019228577 -0.002507213 -0.0013120349 -0.0025038607 -0.0003100141 0.003179373 -0.0024397222 -0.00077792327 -0.00064591406 0.0026924785 -0.0019769652 1.5053749e-05 -0.0015845783 -0.0032011834 0.0016690977 -0.0029198623 -0.0014639418 -1.16999945e-05 -9.872754e-05 -0.0025537468 0.003204914 0.0016606855 0.0030777145 -0.0027193062 0.0014985991 -0.0013790258 0.00027484496 0.0028328728 -0.0014873926 0.0015058335 -0.0022623206 -0.0011828295 0.003132836 -0.0005258846 0.00010712385 -0.0013802099 -0.002560896 -0.00050266983 0.00082326494 -0.00029600938 0.001844554 -0.0009143257 0.00075335504 0.0018185981 0.002781984 -0.0004845802 -0.003069381 0.0014568503 0.00019059499 0.0024806357 -0.00027109464 -0.0008794713 -0.0029176697 -0.00028551897 0.0009421873 0.0018004759 0.0023508852 -0.0019010409 0.0006196062 0.0020296208 -0.0015993508 -0.0010357539 0.0022658762 0.0005438248 6.33057e-05 0.001157879 7.25921e-05 0.0032062754 0.0016868679 -0.0029724638 -0.0023471871 0.0003004853 0.0021308446 -0.002873229 0.0012219127 0.0017299613 0.0019139791 0.0024889724 -0.0020558923 0.0003685379 0.0020157606 -0.00094668387 -0.0020578408 -0.000136741 -0.0027896499 -0.0018666713 0.0023681791 0.0011175132 0.0024085562 0.0022667488 0.0025102473 -0.0012630519 -0.00018726905 0.00078279176 -0.0015063445 0.0027962439 -0.0032860548 0.0022548803 0.00097147224 -0.0016442776 0.001466062 -0.0005798586 0.0022371276 0.0033216167 -0.0014541483 -0.00019977966 -0.0018985462 0.0012836074 0.0009288756 0.0022970254 0.0020336986 0.0031794985 0.003091139 0.0026326894 -0.0023298352 -0.003051955 -0.000118584634 -0.0010332807 0.0026314387 0.0019795243 -0.000515221 0.0005036545 0.00059667986 0.002605857 -0.0031700628 -6.851037e-05 0.0011563984 -0.00031299115 0.002793924 0.003003594 0.002178835 -0.00023720741 0.0025701348 -0.0028447786 0.0010690355 -0.0015459991 -0.0016963187 0.0011965394 0.0017901127 0.0025898376 -0.0019221688 0.0024777865 0.0022084983 -0.0012366001 -0.0029152138 0.001812489 0.0021699183 -0.00026251713 -0.002236619 -0.0023619756 -0.0008323534 0.001714418 -0.0012217459 -0.0031233532 0.0012755799 0.0016281597 -0.0021428545 0.0004028527 -0.00069162605 8.134047e-06 -0.0032945029 0.0008973344 -0.0015833688 0.00036254883 -0.0005254086 0.00073222397 -0.0026271923 -0.0009057283 0.0008877325 0.0017822273 -0.0007971716 -0.0031700318 0.0015019592 3.1521322e-05 0.0010257729 -0.002270882 -0.00045848847 0.0025561936 0.0024488028 -0.0012244328 0.00088090025 -0.0027723766 0.002068495 -0.0015457742 -0.0010547026 0.0031037854 0.00029112815 0.0024969005 -0.0020246878 0.0017201686 0.0033076073 -0.0028191304 -0.0017118971 -0.0023549462 -0.0016208839 -0.0012595217 -0.0028454002 0.0026518686 -0.0016146462 0.0028078707 0.0017541901 -0.002183342 0.00131929 0.0018233832 -0.002475512 -0.0024685732 -0.0008250769 -0.0028752421 -0.00052719115 -0.00013447761 0.0010998949 0.00048062642 -0.00029380718 -0.001864686 0.00057678856 -0.00029912393 0.0022645632 0.0013245296 0.0015098238 0.00047810157 -0.00089995225 -0.0014556042 -0.0003440253 0.00047900915 -0.0008820033 -0.0023579278 -0.002601769 -0.003040596 -0.0019783902 -0.0006158082 -0.0014412904 -0.002153557 -0.0012391075 0.0014297192 -0.0012463483 0.0027927249 0.0005113308 -0.0024141066 0.0031445995 0.0025437372 0.0018310937 -0.0022829485 0.0019408925 0.001336364 0.001728456 0.0014186335 0.00064658484 -0.0010567212 0.0027846145 0.0032040596 0.001264201 -0.00094566506 2.3754437e-06 0.00040627242 -0.002819442 -0.0027413154 -7.700523e-05 0.0004124292 -0.0019144607 -0.0015750917 -0.0024486915 0.0027762048 4.0432613e-05 -0.001503133 0.001900568 0.0030600047 -0.001366624 0.0026548933 0.001791811 0.0019597078 0.00017086347 0.0027376947 -0.0023396802
of -0.0027475595 0.003099785 -6.5886976e-05 -0.0006557592 0.001534543 -0.0013651053 0.000914371 0.0023133222 0.0020218086 -0.0025035986 0.0031274501 0.0015572691 0.0013220398 -0.0020811686 0.0028199926 -0.000716722 0.0029417293 -0.0017873343 -0.0027098067 0.0022748525 0.0005570642 -0.0007328367 0.0031712 0.003164618 -0.0032580162 0.00083507615 0.0020522308 0.0012908188 0.00067426206 0.00014350018 0.00022454342 -0.0012735454 -0.0023800833 -0.00069629116 0.001307966 0.0029395611 0.0030863835 -0.0019919793 -0.0031342236 0.003254792 0.0011432616 0.0017220386 0.0020941147 -0.0009347542 0.0024409008 0.0009434239 0.00095700106 -0.00079345703 -0.0010427498 -0.00079004763 0.0014254785 2.5352638e-05 -0.0031947596 -0.003221848 -0.0020493984 -4.2856533e-05 0.00066580536 0.0031439892 0.0018614499 -0.0014302325 9.277185e-05 0.0016547863 0.0025661031 -0.00038140774 0.0014411402 -0.0019381269 -0.00026806354 0.0027000166 -0.00078668835 -0.003221152 0.0019264198 -0.0013099408 -0.00040762423 0.0033268388 -0.00075211684 -0.0015856886 -0.0017764624 0.002326963 -0.0019029578 0.0007045539 -0.001751887 0.0020402377 0.0014524356 0.0008687846 -0.00049702806 -0.0009153549 0.0029976456 0.0017385912 -0.0007208403 -0.00315677 -0.0024753506 -0.00035458087 -0.00026498237 -0.00085430307 0.0032275731 -0.00015284061 0.0019579204 -0.0024825295 -0.0008353583 -0.001849955 -0.0023796717 0.0004136769 -0.0023922387 -0.000748206 0.0012397679 0.0019443743 0.00039939405 0.0007009101 -0.0013701303 0.0024084442 -0.0021023473 0.0015490715 -0.0027399913 0.0006788222 -0.0016590174 -0.0014158965 -0.0010363285 0.0018850692 0.0019327998 -0.0016582164 0.00025777658 -0.0028319263 0.0026032687 0.0030857634 -0.0009141095 0.00026674112 0.00024888356 0.0018259613 -0.0028686929 0.00019481817 0.002289807 0.0007438644 0.00037489177 -0.0031073857 0.0028274553 -0.002088043 -0.0009974584 0.0011645952 -0.00025754294 0.00047043007 0.00059399684 -0.0022762998 -0.0032416042 0.0030135282 0.0020660178 -0.0023043093 0.0011344942 6.86876e-05 0.0015845816 -0.0023733147 0.001342318 0.0014491447 0.0033191228 -0.001491247 -0.00046308836 -0.002439107 -0.0032326102 -0.0030267525 -0.0003409187 -0.0021677637 0.0016165758 -0.0020546755 0.0008397285 0.0002464803 -0.0011307184 -0.00032640775 0.0033263748 0.003048629 -0.0014872765 0.0030276752 -0.0018805878 0.001976974 -0.0010324065 0.0011439172 0.0010057418 0.0023001535 -0.00079129456 0.002925012 0.0025298095 -0.0031825488 -0.0026694036 -0.0025459656 0.0009744191 -0.0009315745 -0.0023098404 -0.0027094213 0.002769726 0.00066349586 -0.0031093392 -0.0015975721 0.0010455791 -0.0015710688 0.0017602809 -0.0014111471 0.0008805982 -0.0026818959 0.002069962 0.0016062959 0.00026239714 0.0010044822 -0.0029091612 0.0007100534 -0.0002911814 -0.003106363 -0.0031427145 -0.00047023932 0.0014774696 0.0012346903 -0.0021662314 -0.002291023 -0.0016664711 -0.0007622814 -0.0024167625 -0.0032011063 -0.00091454346 -0.0027876138 -0.0020129585 -0.0018903096 -0.0007813795 -0.00056899944 -0.0029856665 -0.00024506648 0.0027175022 0.0025634766 -0.0024020385 -0.0012222775 0.0010395169 -0.0031902408 0.000492146 0.0021748217 0.0019154731 -0.002921021 -0.0015057151 -0.002713387 1.5318394e-05 0.0030878775 0.001991102 0.0016891026 0.0016870204 -0.0010809724 0.003184061 -0.0024521414 -0.002423463 -0.0007551297 -0.00025952022 -0.0010720348 -0.00019752899 0.0024962744 -0.00023250659 -0.00054164726 0.0009147994 -0.002786367 0.0026186013 0.0028453676 -0.003194696 0.00081542175 0.003301657 -0.002555268 -0.0023223066 -0.0025788394 0.0027986406 -0.00022711197 0.0030481361 -0.002719407 0.0012476945 0.00087834755 0.0002475707 0.00077589194 -0.002489698 -0.0031194584 0.0007848589 0.002049485 0.0026618957 0.0019119644 -0.0002591125 0.0027687217 -0.0031121047 0.0011353771 8.891741e-05 0.0012857477 0.0024619277 -0.0022417228 0.0018614936 -0.0031740754 -0.00026815335 -0.002896246 -0.0016995581 0.003096409 -0.000619421 0.00097147544 0.0030237595 0.002979377 -0.002736145 -0.0010041046 0.0032955352 0.0017014765 -0.00052936235 -0.0028973406 0.0009871721 -0.0022252996
to 0.0027107573 -0.0014857785 -0.00035611948 0.00033545494 -6.370465e-05 0.0003827254 0.0020379536 -6.7575775e-06 -0.0010819888 -0.0005035766 0.0019657658 0.00050470035 -0.00024142106 0.003111082 -0.0016404279 -0.0002794703 0.00305847 0.0022498092 0.0005009516 -0.0029608535 0.00038291534 -0.0007627519 0.0031227453 0.00040330886 0.0004966879 0.00080213626 -0.0006120022 -0.001666545 7.74765e-05 -0.0006713939 0.002200311 0.0029800406 -0.00022491852 0.0009923378 -0.002035885 0.0005664412 -0.0023087447 -0.0028980088 -0.0019667346 -0.0029854917 0.0024258646 -0.0019240109 0.0027587835 -0.002414515 0.0011405579 0.0032249992 -0.0025951497 -0.0033150197 -0.001443049 -0.00089437724 -9.0429785e-05 -0.0029438504 -0.0028725194 0.00093340315 -0.0027354693 -0.0030231127 -0.00078015565 -0.0028772696 -0.002352217 -0.0028003836 -0.000100443365 -0.0015214332 0.0022090578 0.00050905306 -0.0011138256 0.0020363235 -0.0020044288 -0.0015520565 -0.0024025035 -0.0014455271 -0.00060311 0.002163214 -0.0009234643 0.0016396554 0.0023014809 -0.0024879018 0.0015216168 0.0020423261 -0.0009848253 0.0022083402 0.0020419597 -0.0021478287 -0.002254851 0.0008463192 -0.000541273 -0.0020217092 0.003166403 -0.0017100493 -0.0021846993 -3.996213e-05 -0.000900476 0.00014813343 -0.0011791531 -0.00013977686 -0.00023620526 0.00027427357 0.0027316054 -0.0019122362 -0.0005531764 0.001857202 0.0027227069 -0.0014810109 0.0029951446 0.0027512216 -0.0014784074 0.00010103464 0.0014248299 -0.0013087734 -0.0018533221 -0.0021707742 -0.00022357941 -9.864092e-05 0.0014876946 -0.0008246851 -5.753676e-05 0.0008206248 0.001622533 -1.0269483e-05 -0.0021131365 -0.0030869357 8.885861e-06 0.0022206313 0.00048867386 -0.0029888407 -0.0026462015 0.0021839675 -0.0012618939 0.0020849975 -0.0022270107 0.002826554 -0.0021721085 0.0010960063 -0.0003523286 -0.0022625097 -0.0010958656 -0.00038713773 -0.0018236471 -0.00040378253 -0.0025211049 0.00088221946 0.0030233827 -0.00079241674 -0.00032550335 0.0011711868 0.0028883624 -0.0019739508 -0.0022958596 -0.0009776616 0.003049232 0.0002887559 -0.0028928001 -0.00048232634 0.0031598217 -0.0025164962 -0.0017860333 0.0031055205 -0.0029912423 0.0012753026 0.00022181352 0.0022202332 0.0027709175 -0.0009502618 -0.0013307715 0.0029659725 0.0006965486 0.0020829805 -0.0031485716 0.0031967075 -0.0004494365 -0.0020173716 0.0009975116 -0.00015220404 0.0015688308 -0.0007610075 -0.0013792809 0.0007592996 0.0027847942 -0.001665202 0.00088955957 -0.0026635185 -0.0022577827 -0.00015588998 -0.0029225762 0.0009298126 0.0005328647 -0.0007732312 0.0016679303 0.0032495952 0.0028180892 -0.000626742 0.0006860503 -0.0013345631 -0.0027471352 0.0020926516 -0.0006497272 -0.00022206863 -0.0005904444 -0.0015118885 0.0013539029 -0.0014233938 -0.0031928492 0.002981038 0.0013883559 0.0030782446 0.002214501 0.00097491185 0.0032680067 -0.0014748804 -0.0022677707 0.0014091269 0.001243 -0.0018882037 0.0032349196 -0.0011861023 0.0031831353 0.00027824164 -0.0021128193 -0.000659039 -0.0024590183 -0.0009931747 0.000347232 0.0031608955 0.0031186158 -0.0021986263 0.0011583837 0.0007585231 -0.0008297841 -0.0030763913 0.00034237542 -0.0027219024 0.0021067294 -0.0019333601 0.0018451461 0.0032779074 -5.3333442e-05 0.0015094972 -0.0006031338 0.002453587 0.0013133653 -0.0030034415 -0.0007995017 0.0012095897 -3.3189455e-05 -0.000400424 -0.00035181284 -0.0005572009 0.00020165046 0.0013883646 -0.0014175972 -0.0012778743 -1.7605622e-05 8.978526e-05 -5.6269168e-05 -0.001595169 0.0014378007 -0.0007239731 0.0007011795 0.00022217432 0.0019898922 -0.002280794 -0.0022719034 -0.0014920862 0.0031452759 -0.00053062756 -0.003143081 -0.00018168052 -0.0014829747 0.002000026 -0.0031945617 0.0009530004 -0.0030842773 0.0004165999 0.0019997326 0.0024657822 -0.0025404883 -0.0020176745 -0.0022794802 -0.002639447 -0.00316636 -0.00070849893 -0.00027864455 -0.0024187341 0.002262345 0.00037320613 0.0019429557 0.0004909555 0.0002631219 -0.0024560436 -0.000725553 0.0014403597 -0.0016951052 0.00037692944 0.00096112094 -0.0005121207 0.0033107647 0.0027832112 0.0008052222 0.002372748 0.0019638126 -0.0018602061
and -0.0017187477 -0.0022227797 -0.0025922784 0.0027702427 -0.00066078105 -0.0022849878 -0.0013847963 0.0017147087 -0.00095637876 -0.0012498872 0.00054047507 -0.00092543126 -0.0005281202 0.00035816352 -0.0009926487 0.0028397609 0.001303645 -0.003319621 0.002086533 -0.0022514185 0.0002564772 0.0014680783 -0.0017011253 -0.0007035565 0.002698493 -0.0014145978 -0.0025454203 0.0030859709 -0.000718499 -0.0015731446 0.0028569333 0.0014277792 0.0014416123 0.0030948378 -0.0028176936 0.0017517734 0.0006797838 0.0013960934 0.00056596677 0.0014880443 0.0014954297 0.0020348406 -0.0010673658 -0.0015252432 -0.00014217218 0.00084457797 -0.0010877228 0.0020192394 0.0013847097 0.0025881974 0.00085642416 0.0027055605 -0.0004624033 0.0026926422 0.0012390049 -0.0026824418 -0.0013112052 -0.00082395953 0.0016310144 -0.00029071968 -0.0009436361 0.0026112357 0.0031076337 -0.0005383094 -0.0017197498 -0.0015672533 -0.0016153503 -0.003200942 0.0004573401 -0.0014083051 0.00084223587 0.0018714945 -0.0013553023 -0.0031988604 0.00051556586 -0.0022333742 0.0008317248 -0.0012602106 0.0023594736 0.00021340688 0.0011869796 -0.0009130446 -0.0005701828 0.002550931 0.00046922604 -0.0019501495 -0.0026114988 0.00041089536 0.0021515433 0.0018521165 -0.0029923504 0.0028640549 0.0013489922 0.002489868 0.0032487782 -0.0024298604 -0.0030133207 0.0019453334 0.003130404 0.001168975 0.0023629323 -0.00052264374 0.0026491657 -0.0031628862 -0.0026764998 -0.0022134574 -0.0013344852 0.0016630722 -0.0012711866 -0.0027733017 0.0028039257 -0.001249001 0.0028695655 -0.0016319172 0.0013061976 0.0016406719 0.0007975364 -0.0009396013 0.0009497078 -0.0027520792 -0.000921847 -0.0008637198 0.002416335 -0.001154468 -0.002199901 0.0014468089 -0.00015816212 -0.0011991858 0.0022941574 0.0012907704 -0.0013000671 0.00025729576 0.0030478342 0.0025848849 0.0021206236 0.001555767 0.0007948295 -0.0006138754 -0.0021237643 -0.0001006039 -0.0005217965 -0.00019076189 -0.002087624 0.0024780154 -0.0021971648 -0.0024130924 -0.0009190488 -0.0005051335 -0.0025452392 0.0002327466 -0.0017753704 -0.00042518138 -0.0024550373 0.0006535228 0.0010910662 -7.712841e-06 -0.0018161193 -0.00057536206 0.0023616385 0.0012454191 -0.0029603497 -0.0011378503 0.00078470074 0.0007126729 -0.0031546697 0.001523722 -0.002885666 -0.0024623561 0.0011610372 -0.0011569866 0.0011881567 0.0029646968 -0.0011914412 0.0031068078 0.0005703457 0.0032825915 0.0019016806 -0.003049828 -0.0011092441 0.002176725 0.0018675931 0.0029018386 0.002308701 0.0026796293 -0.0032743367 0.0014329418 -0.0016766922 0.001170795 0.002018896 0.0014640435 0.0025041199 0.0004992382 -0.00042164724 0.0019227997 -0.0018798558 1.2863477e-05 0.0031521956 -0.0018270834 0.0012714259 -0.0027043407 0.0032567645 0.0027217045 0.00042699018 0.0016991926 0.00046937625 -0.0021517205 -0.000476017 0.0021497218 -0.0015391024 -0.0013310218 0.0016414683 0.0009043662 -0.00061599177 -0.0009589815 0.0020035768 -0.0019055796 -0.0010789013 -0.0021626083 -0.0014115445 -0.0028603314 -0.0014899302 -0.002837077 0.00046792586 -0.0028727325 -0.003305552 -0.002733875 -0.0022575553 0.0022268614 0.0012615188 0.00011872212 -0.0009859944 -0.0024761073 0.00017780621 0.00016663075 6.5205895e-05 0.00028419812 0.00026211023 -2.2720496e-05 -0.002669018 -0.0019567576 -0.002794304 -0.0004373479 0.0006068786 0.002472376 -0.0006544757 -0.0007750972 0.0031623847 2.6567777e-05 -0.0008015076 0.002868282 0.0008956679 -0.0017813245 0.0021960353 0.0015033841 -0.0023514892 -0.00010772466 0.00027816216 0.0019157855 -0.0005725519 -0.00093551 0.00058281026 0.00028239013 0.00039760908 -0.00087809406 -0.0019952615 0.0024409946 0.0025291252 0.002765452 -0.0028662824 0.0008788085 -0.0011866546 0.0032068014 0.0009679222 0.0015470377 0.00079520466 0.0022028256 -0.0019144304 0.0026314703 -0.0008036407 -0.0015206289 -0.0006869968 0.0032445192 -0.0022855306 -0.0007305733 0.0023336664 -1.858314e-05 -0.0020983226 -0.0021311752 0.0029801314 0.0021431914 0.0015911977 -0.0010873493 -0.003089207 0.001262296 0.0023868496 -0.0018776298 -0.0026216714 -0.0009909137 -0.0016439661 -0.0007717037
a -0.0006480726 -0.0017558407 0.0031490372 -0.0030995775 0.0015013154 0.0018013922 -0.00046975454 0.003002364 0.0032951196 -0.0018250147 -0.0020070004 -0.0022489913 -0.0026316277 -0.0010159723 -0.0018646757 -0.0027815604 0.0002609674 0.0009982189 0.0021382475 -0.00087631703 -0.0014844927 0.0004165236 0.00013048729 0.0027056662 6.093343e-05 0.0024105287 -0.0027548384 0.0028111783 -0.00062963646 0.0029003844 -0.0025389458 0.0005987954 0.00035216173 1.5335083e-05 -0.0017010848 -0.0030825662 -0.002421406 -0.0026503913 0.00063790876 0.00015948853 -0.00060437917 0.0023733885 -0.0008252311 -0.0004491035 -0.0029668545 -0.003308471 0.0029831321 -0.0019179797 -0.0021243326 0.0017331354 0.0022233312 -0.0022772138 0.00031991958 -0.002002825 0.00054911454 -0.0014297597 -0.0011469325 0.00072855555 0.0028871926 0.0022427035 -0.0032256858 -0.0018740352 0.0026267774 0.00066311914 -0.0014186844 0.00019960404 0.0031736533 -0.0003675723 -0.0031415462 0.0005361366 0.0020774514 0.0020941233 0.001363883 -0.001883413 -0.0001235644 -1.8439292e-05 0.0015239319 -0.0026805298 -0.00267277 8.824984e-05 -0.0028694335 0.0019400517 -0.00013927062 0.003323726 -0.0017813261 -0.00016204675 0.0025855906 -0.0013559778 -0.0016719667 0.0005300236 0.0008835642 -0.0008549865 0.0021491759 -0.0025533175 0.0011311865 0.00016332309 0.0029107276 0.001994238 0.0022717873 0.0026075148 -0.0031667065 0.0031874077 -0.0025902519 -0.0008818364 -0.0016354696 -0.0016555659 -0.0026745303 -0.0025945283 -0.0015177377 -0.000425121 -0.0017009965 0.0020468473 -0.003172207 -0.0017690349 0.003145717 0.0023304431 0.0025586048 0.0014115794 0.00016903083 -0.001993715 0.002006259 0.0008783436 0.0025664775 0.002131281 0.002647523 0.0028858017 -0.0032985853 -0.0022519017 0.00044585785 0.0021467677 0.0024579382 0.0018389933 0.0025538746 -0.0017085227 0.0021948027 -0.001369458 -0.0030184477 0.0030472262 0.00044380108 -0.00091989356 -0.0008259479 -0.0014068262 0.001604112 0.0014667407 -0.00088445423 -0.0024472936 -0.0011886175 -0.00011220534 0.0020319636 -0.0009457795 -4.0298302e-05 0.00029324213 -0.0023652164 0.00068833353 -0.00047747453 0.0009340493 0.0016140739 -0.0004506731 -0.00092671474 0.002579549 0.0016818659 0.0022378406 0.0015052144 0.0028890513 0.0024916562 -0.00036062955 0.002915879 0.0015339056 0.0018135444 -0.0004620282 -0.00068043947 -0.0014747818 -0.0028383995 0.0010125756 0.0029610642 0.0029732473 -0.0006474519 0.0020287188 0.0012599078 -0.0014319889 0.00068097434 -0.0018126289 0.0027362974 0.0018109696 0.0010614777 0.0013675229 0.0028857167 0.0024240112 -0.0002778244 -0.0023575893 0.002793491 0.0024111946 0.00057682354 -0.00044916393 -0.0019633642 -0.0015110302 0.0028826555 -0.0010450364 -0.0021129402 0.0032900253 0.0025655485 0.0030402136 0.0003785006 -0.002775027 0.0028083387 -0.0012320773 0.0019140578 0.0014638599 0.0032299813 -0.003097833 0.0030694683 -0.0030938426 -0.0023025712 -0.0030340648 -0.001849037 0.0024562986 0.0030548254 -0.0011084509 0.0012410164 -0.0012084015 0.0026271567 0.0019556251 6.9141386e-08 -0.0012095587 -0.0024081024 0.0015895383 0.0004843259 -0.0008710623 0.002612602 -0.001349872 -0.003049662 -0.0007518236 4.1715302e-05 -0.0022130855 -0.0018288724 -0.002833259 0.0030766241 0.002474676 -9.841442e-05 0.0024558879 0.0026502626 -0.00026119154 0.0022040303 0.0012558412 0.0016922808 0.0024176638 -0.0015797964 -0.000728511 0.00029104075 0.0014120683 0.0011014438 0.0016986092 0.0015288282 -0.002812836 -0.0010612798 -0.0024122533 0.003227141 0.0016688665 5.6947072e-05 0.0013709926 -0.0025520436 -0.002098217 0.0010254645 0.0021782129 0.0013166245 0.0020060071 -0.00066204387 -0.0011150432 6.9056354e-05 -0.0010647869 -0.0018389686 -0.0025961867 0.002178514 -0.00036344607 -0.0006302937 -0.0026015916 0.0031125243 0.00028938055 0.00058987853 0.000830555 -0.0024619976 0.0005462742 0.0009921876 -0.002855677 0.001651934 0.00081113575 0.0024993038 0.0016814327 -0.0010105721 -0.0023876461 0.002365404 0.0006338445 0.0017330782 0.0021270362 0.0006374264 -0.0020425376 -2.0988782e-06 0.002756099 -0.0020328497 0.0031460936
languages -0.002396981 0.0014109635 0.00072113116 0.0024802382 -0.0016297555 -0.0015214491 -0.002032725 0.0010997892 -0.0014998213 0.0028409616 -0.0014296095 -0.00303514 -0.0016054519 0.00213883 -0.0021237747 -0.0017538461 -0.0024348036 0.0020074202 0.001119198 0.00094946305 -0.0010461839 0.002010297 -0.0020509155 -0.000660034 -0.0019943612 -0.00033189377 -0.000673662 0.002828648 2.6000342e-05 -0.0028584425 -0.0018096996 -0.0022919958 0.00089746 0.0031522154 -0.0019386658 0.0027550086 0.0028440172 -0.0023542135 -0.0029610714 0.0031563942 0.0027914548 -0.0015636309 -0.0022420136 0.002614045 0.0012544481 0.0026985009 -0.002523849 -0.0031750281 0.00052580197 -0.0032685893 -0.0016286286 -0.0011533682 0.003206974 0.002874523 -0.0009452025 0.0019422905 0.0027456982 -0.000754327 0.0031761804 0.0023867385 0.0006804999 -0.0012829216 -0.0016939171 -0.0010172176 0.002629288 -0.0020634786 -0.0009716741 0.003063674 0.0011522182 0.002024204 -0.002677606 -0.00025050165 0.0018408155 -0.00157149 0.0024928309 0.0031065305 -0.0001364565 -0.000687867 -0.00019778649 -0.0019286298 -0.0027954276 -0.00050229154 -0.0008523949 0.0014608112 -0.0022891727 0.0018045648 -0.002248362 -0.002606763 0.0028239035 0.0029728715 -0.0011604134 0.0011638046 -0.0019319121 -0.0029166953 -0.0018385244 0.0022495762 0.0021392528 0.0031460247 0.0023517616 0.0022516504 0.00043338854 -0.0032681013 0.0015292541 -0.0001794076 0.0021106983 0.00059449114 -0.0010432665 0.0025866572 0.0005182219 1.8402736e-05 -0.0015376512 -0.0028178415 -0.0025889445 0.0028901696 -0.002974987 0.0030115715 -0.0030936727 -9.225209e-05 -0.0006356827 -0.0029770485 0.0028766862 0.0022592712 0.0010064793 0.0016111509 3.739675e-05 0.0031415597 0.0023404288 -0.0032845759 -0.0014777406 -0.00043003718 0.0010159072 -0.0014413174 0.0004830551 -0.0026153 0.0009260241 0.001567564 0.0016457709 -0.0010585673 -0.0028090135 -0.0030735398 -0.00024096647 -0.0024424887 -0.0022716545 0.0020400016 0.0023907677 0.0007058064 -0.0026331337 -0.0018996628 0.0026839478 0.0013069479 -0.0017468238 -0.0024639687 0.0002571845 0.0011545849 0.00069306453 0.001033601 -0.0018735003 -0.0032964952 -0.0023402795 7.6769196e-05 0.0015395593 0.0015087692 0.0006266038 0.0017235581 -3.5120647e-05 0.0013713884 -0.0030410807 0.0025669702 0.0020491576 0.0017080521 0.002402223 0.0028132654 0.00024623156 -0.00056795357 0.00017287572 -0.0031055936 0.0028020716 -0.0021266444 0.0028092805 -0.0014147854 0.00021561384 -0.003054723 -0.0031861893 -0.0026122704 -0.0025770187 0.00012519359 -0.002408821 -0.0016500711 -0.0017572355 -0.0014297661 0.0023374367 0.0016097967 0.002894257 0.0023645305 -0.0018981353 0.0024135986 -0.0030983011 -0.0008625229 -0.0025857226 0.0013975335 0.0006000765 0.0023486973 0.0009815661 -0.0023269502 0.0025708922 -0.001996309 0.0029992359 0.0009864012 -0.001338431 -0.0015629983 -0.0014722411 -0.002048819 0.0031262469 -0.0008831986 0.0025908127 -0.0032267785 0.00070293027 -0.00041120528 0.002514743 -0.0030182004 0.0024791877 -0.0017019319 -0.0020045915 -0.0018830522 -0.0011263903 -0.0011370325 -0.0010652216 -0.0024974004 0.00023625851 -0.00019202392 -0.0005613335 0.001252377 -0.002540063 -0.0010738078 0.0017184472 0.0028479544 -0.00326998 0.0023984455 0.0017698288 -0.0012932324 0.002858719 -0.0030739976 0.0024162268 0.0017879446 0.00043119828 -0.0017332514 -0.0013928843 -0.001118927 0.0005360953 0.0005289014 0.002462748 0.0033258644 0.0029557792 -0.0013354834 0.0032151302 -0.00020984729 0.0016218106 0.0008496722 -0.00020993709 0.0012224825 -0.0017731381 -0.0019188928 -0.0025348815 0.0006354777 0.00217529 0.00029404243 0.0004189825 0.0010571989 0.0027115552 -0.0025666873 0.0007535839 -0.00249137 0.0012366041 0.0031701827 0.0025067527 0.0021420098 0.0026715915 0.0021837146 0.0022855585 0.0028940288 -0.0016493471 0.0030709847 0.0016864006 -0.00071008364 0.0028291496 0.0016937804 0.0032163183 0.0009441336 0.003289179 0.00039900144 0.0030430611 0.0011956557 0.0021882686 -0.001203777 0.0022643025 0.0024145246 -0.00071115413 -0.00061985175 0.0012039152 -0.002345476
